//Numpy array shape [32, 16]
//Min -0.878980338573
//Max 0.857485771179
//Number of zeros 0

#ifndef W10_H_
#define W10_H_

#ifndef __SYNTHESIS__
fc7_weight_t w10[512];
#else
fc7_weight_t w10[512] = {-0.4358632267, 0.4103718698, -0.0993325338, -0.0873019323, 0.3274125755, 0.0292534269, -0.1251234859, 0.1530522704, 0.2186592519, -0.0883528069, -0.0692923814, -0.3742519617, 0.2676092982, 0.1740231514, -0.5139024258, -0.3536725342, -0.0182907563, -0.3516031504, -0.0152073475, 0.1772205234, -0.2707260549, 0.0896661952, -0.2040967792, -0.2649336755, 0.0121384971, -0.1404382586, -0.1537743509, -0.1699047834, 0.0813771114, -0.3211203814, -0.0919325501, 0.3048937321, -0.1432747543, 0.2429328114, -0.0315360241, -0.0168796182, -0.2569999099, -0.0501433462, -0.2034433037, -0.2914279401, 0.0820741579, 0.0546302125, 0.0590194687, -0.1261279583, 0.2464020848, 0.0949079022, 0.1487902105, 0.3017787933, -0.0095302286, 0.0935246795, -0.3217041194, -0.2885724604, -0.0725652725, 0.1543264836, 0.5286008716, 0.5613246560, 0.3432956934, -0.2155550569, 0.2006296366, 0.1699577719, -0.2543385923, 0.1808906645, -0.5688795447, 0.2195239812, 0.2549943626, -0.1641705781, 0.1731752902, -0.3920346498, -0.4725532532, 0.0199460704, 0.0471597910, 0.0443409048, 0.5854259729, 0.2413355708, -0.1415346861, -0.3020394742, -0.0559488498, 0.3529895246, -0.0406824760, 0.4127733409, -0.4588248730, 0.0442358777, -0.4354922473, -0.8335648179, -0.4879531264, 0.2549959421, 0.1134104207, -0.4064943790, 0.0196594130, -0.2361346930, -0.4176578224, 0.2169410586, -0.7716148496, -0.1977404058, -0.3032812178, -0.2645321488, 0.0837097093, 0.1240101978, -0.5197728276, 0.1573221833, 0.2353080511, -0.3342230022, 0.1894479245, 0.1926060915, 0.1199570075, -0.2770576775, 0.0376287922, 0.0759120807, 0.3254191279, -0.1190056875, -0.1842445433, -0.2189186960, 0.2496528476, -0.2328338623, 0.0565452911, 0.1345098764, 0.1005278975, -0.1185406595, -0.3609430194, -0.3330434263, -0.1053714678, -0.2628683150, 0.2485295087, -0.2131237388, -0.2876802981, -0.3507286310, 0.2144334167, 0.2140423656, -0.2232508659, -0.0680293739, 0.3455338776, -0.2916396260, 0.1901103705, 0.4688791633, 0.0925194398, 0.4434591234, -0.2872698307, 0.0751347691, 0.2100538462, -0.0572995953, 0.0486715287, 0.1262701005, -0.0522950031, 0.1014913097, -0.2848193347, -0.1714473367, 0.0708912611, -0.1896160096, -0.0215678569, -0.2979841530, -0.2014971823, -0.2605681717, -0.0421554483, 0.2282497585, 0.2101509869, -0.1571745425, 0.1200417429, 0.2460963130, 0.3543666899, 0.0276113674, 0.2529915273, 0.0912759304, 0.4378063083, -0.0627125651, -0.2247957140, -0.1844602972, -0.1729635000, 0.3943947852, -0.0907396674, -0.0536610410, 0.0567354113, 0.4123918414, 0.2188201100, 0.3151866794, 0.3388319314, 0.1860169768, -0.2257935554, 0.2703754604, -0.2518986166, -0.0726659298, 0.1335017383, -0.2510313392, -0.3447156250, 0.0876515657, -0.3065630496, 0.0388938449, 0.0777727291, 0.2823994756, 0.1311657876, 0.0992123112, -0.0011956056, 0.2835479081, 0.3899458349, -0.3275990486, -0.0110591408, 0.3654260635, 0.3791766465, -0.0054576895, -0.2994251251, -0.0665738285, 0.1938750744, -0.2034399062, -0.0397223756, 0.5805458426, 0.1455319375, 0.0724728927, 0.4085538983, -0.3015415967, -0.0284216776, 0.0087781772, -0.1510163397, 0.3198270798, 0.3434202671, -0.2152854353, 0.4155732393, 0.1814880669, -0.0452782065, -0.0686718449, 0.2114073038, -0.0794899166, 0.2633140087, -0.0255217571, -0.3343146443, 0.3789423108, -0.2489175051, -0.1820648760, 0.2367308885, 0.0336894840, 0.1724945009, -0.0652444065, -0.2311100215, -0.1753779203, -0.1944541782, 0.1217621341, 0.1809576005, 0.2344377637, 0.2231473178, -0.0664284006, 0.0356270298, 0.4146944582, 0.3165181875, -0.2560048699, -0.2224408239, 0.1520466655, 0.0131549733, -0.2792696655, 0.0545632057, -0.3541465700, -0.0470381342, 0.3319410086, -0.1925308108, 0.0889638588, -0.2615029812, -0.1017283276, 0.3365198970, 0.1400333345, -0.1844771355, 0.1181065366, -0.2068488002, -0.1818591356, -0.4941768646, -0.0459817015, -0.2652394176, 0.1792133749, -0.0054817959, -0.3646753430, -0.3291175961, 0.1458995342, -0.1929842532, 0.1944708973, 0.3829448223, 0.1429886371, 0.0943320170, -0.1188818216, -0.1763665080, 0.0897553712, 0.3151035309, 0.4238570929, 0.4773166180, -0.2043019980, 0.2090809494, -0.0900513977, 0.0083908290, -0.2232378423, -0.3208948076, -0.1712834686, 0.0138368029, 0.2563239336, 0.8574857712, -0.1889702976, -0.4659032524, 0.1138371453, 0.0737479702, -0.1774083227, -0.2971217632, -0.2654930353, 0.1050988734, 0.0218353234, 0.4701848328, -0.1080024615, -0.2359435856, 0.3722361922, -0.1381298006, 0.4279532135, -0.1992281675, 0.0825498104, -0.3502684236, -0.2278200984, 0.2142520100, 0.3980195522, 0.2772030234, 0.6283137202, 0.0568116233, -0.1723348498, 0.1972838789, -0.3261546195, -0.5159438848, -0.0433492735, -0.5801236033, -0.4335484803, 0.4455714226, 0.2669962049, -0.4238077700, -0.0998878628, 0.1220702901, -0.0436040834, -0.1079949364, 0.2845118046, 0.1991609037, -0.2082705945, 0.3152000904, 0.1278561950, 0.3155989945, 0.1015218422, -0.2096959352, 0.3184480667, 0.0863076523, 0.1729508340, 0.3609670401, 0.0009568435, -0.1043872610, 0.2739716470, 0.2589887679, 0.2141838074, 0.2239487916, 0.2157911807, -0.0162320565, -0.0981684849, -0.0227266401, -0.0335592814, 0.1955681145, -0.2605060935, -0.6035048962, 0.1808151603, -0.0523693487, -0.3042100370, -0.3395142853, -0.1710003018, -0.1511760950, -0.5405384898, -0.1606419086, -0.1498814970, -0.0430479906, 0.4143536091, -0.5449375510, 0.0057898718, 0.1344891042, -0.2768428326, -0.4683622122, 0.4170095921, 0.2713435292, -0.4654710889, -0.1117955148, 0.4526006877, -0.0474512465, 0.0812230408, 0.4228991866, 0.1387706697, -0.2417306155, -0.0846026912, -0.5547553897, 0.2495435625, -0.1076192930, 0.2139216363, 0.3374328017, 0.4718552828, -0.4277976751, 0.4498544335, 0.2983438969, -0.3478190303, 0.1389541626, 0.1699183881, 0.1543125808, -0.0305203982, 0.1331208795, 0.2984550297, 0.3309616446, -0.2383323461, 0.1190817431, -0.1445004344, 0.4452600479, 0.2965036929, -0.1748412251, 0.3178508580, 0.3741141260, -0.2571300566, 0.4344151318, 0.2332973331, -0.2964617908, -0.1943887025, 0.0735530779, 0.3048436642, -0.0340691879, -0.2421655208, -0.2476292104, 0.0891105607, -0.2748212218, 0.0846132860, -0.0517881885, -0.4594833255, -0.1031421348, -0.1887292117, -0.0951516405, -0.2910398841, -0.2834964097, 0.2410376370, -0.3916475177, -0.0741434321, -0.6190499663, -0.3569630980, 0.2181863934, -0.3726885915, -0.4062569439, 0.1749177277, 0.4579309821, -0.5317896008, -0.1659747362, 0.3156295121, 0.0962081328, -0.0200346932, -0.1923826933, -0.1346125901, -0.4791601300, 0.0880624577, -0.3987146020, -0.0487956069, -0.0744476095, 0.1876473725, -0.4589174688, -0.0878407732, 0.1258905232, 0.3519624174, -0.1471570134, -0.2554868758, -0.0665606856, 0.0503626280, -0.4290775359, 0.1975995898, -0.2272088528, 0.0656322390, 0.1987473518, -0.1522149742, 0.3256564438, -0.0746518746, 0.1354860365, 0.2469536364, -0.8789803386, 0.1549449712, -0.0249018427, 0.6493579745, 0.2099224776, 0.4357871413, 0.1060801521, -0.1889571846, 0.4324044585, -0.0873301178, -0.0626122430, -0.2678177655, -0.0035792051, 0.1765253097, 0.1174877137, 0.2663399875, 0.0495408289, -0.0232424159, 0.3182584345, -0.2704146802, 0.4407550991, -0.3019943535, 0.2262959778, -0.2060773969, -0.0367980264, -0.3350571394, 0.1113036200, -0.4087150991, 0.0082406448, -0.2950497270, 0.4527156353, -0.2574767470, 0.4476530254, 0.3530067205, 0.0520291850, -0.5963741541, -0.4436647296, -0.0469623134, -0.2567194104, -0.1213089898, 0.4880202711, 0.2599648535, 0.3080538511, 0.0006955701, 0.5530586839, 0.0428684615};
#endif

#endif
