//Numpy array shape [16, 5]
//Min -1.440023779869
//Max 0.683013319969
//Number of zeros 0

#ifndef W12_H_
#define W12_H_

#ifndef __SYNTHESIS__
output_weight_t w12[80];
#else
output_weight_t w12[80] = {0.5756667852, 0.6038956642, 0.5172422528, -0.9821552634, 0.6830133200, 0.1095444635, -0.4540104568, 0.5822455883, 0.3406116664, -0.1711984724, 0.0298722591, 0.3460096717, -0.5193902850, -0.5835966468, 0.2178527266, -0.3552359045, -0.0757927522, 0.0859282762, 0.6381534934, -1.4400237799, -0.0343287215, -0.1085050851, 0.4661543965, 0.1909717321, -0.9217244983, -0.4476367235, 0.3606932759, 0.2850129306, 0.6294331551, -0.9570605159, -0.6753638387, 0.0634395108, 0.2934583426, 0.4783880413, -0.5259855986, -0.1231617779, -0.6806780696, 0.5637216568, 0.5255140662, 0.2828482985, -0.2996156514, -0.2155863941, -0.3467630148, 0.5371917486, 0.4721750915, -0.3363970220, -0.2521567941, 0.2904388011, -0.3085128069, -0.5024627447, -0.3258323073, 0.0349759944, 0.0751525089, -0.6016957164, 0.4339747727, 0.6459290981, -0.2255547196, -0.3890072703, -0.7311526537, -0.2616981268, -0.3278568089, -0.1957573593, 0.6472647190, 0.5472677946, -1.1849865913, -0.3753418326, 0.4899968505, -0.9112426043, -0.0599145330, 0.3405494392, 0.6540093422, 0.4163301587, -0.3394157290, -0.3964866996, 0.0693203658, -0.4909141660, 0.1611397564, -0.6608759761, -0.2087224722, 0.4428817928};
#endif

#endif
