//Numpy array shape [4, 8, 8]
//Min -0.562605023384
//Max 0.541152238846
//Number of zeros 0

#ifndef W6_H_
#define W6_H_

#ifndef __SYNTHESIS__
conv3_weight_t w6[256];
#else
conv3_weight_t w6[256] = {0.0750278085, -0.1546328217, 0.1595883071, 0.2792962790, 0.2445102632, -0.1855093241, 0.1817889810, 0.0283383913, 0.3168459833, -0.2988244891, 0.2567921877, -0.0526722856, 0.3774836659, -0.1183134019, -0.2133366764, 0.0612724423, -0.1596728712, 0.0321117975, 0.2328937948, -0.1208834350, 0.2791144848, 0.1221955568, -0.0700421408, 0.1338978112, -0.1106120124, 0.4724710286, -0.5626050234, 0.1187747568, -0.1981636733, -0.1228071526, 0.1379549801, -0.2003343701, 0.0667949244, -0.1205365360, 0.4145821035, -0.1973890960, -0.0554321706, -0.0609434433, 0.1051808819, -0.3693235815, -0.2680706680, 0.0008413557, -0.1421994716, 0.5257094502, -0.2622572482, -0.0364827067, 0.3238301277, 0.0656646416, 0.0324201658, -0.1544536650, 0.2849741578, -0.0873363763, 0.2449868768, -0.0579431504, -0.2398867905, -0.1007319242, -0.1960303783, -0.0021589997, -0.2859734595, -0.0085035432, 0.1328419447, 0.2155129611, -0.1619182229, 0.1977676600, -0.2788397074, -0.0051874160, -0.3075090945, 0.0027794561, 0.3214479983, 0.2662947178, 0.0768551677, 0.2116416544, 0.2065947205, 0.0724919438, -0.1828407943, -0.2290221900, 0.1250776798, 0.1688891798, 0.1193277538, 0.4069748521, 0.1501644701, 0.2676498592, 0.1282070577, 0.1151516959, 0.0869282186, 0.0261551682, -0.2748233080, 0.1722619534, 0.1978460848, 0.1243522763, -0.1498412788, 0.2184867263, -0.0813104361, -0.3472745121, 0.1753257811, -0.3193427026, 0.4167609513, -0.1315347701, 0.1684750468, -0.1181722060, -0.3463426828, 0.0978718027, 0.1588933021, -0.3466594815, -0.0531116240, 0.1858139485, -0.4618615806, 0.4337982833, 0.1907119006, 0.2221404761, 0.2746993005, 0.4687961042, 0.2909348607, -0.0987227410, 0.3284253776, 0.0001619044, -0.0626868084, 0.1657962501, 0.1804092824, 0.0197622422, 0.0469838977, -0.4707004130, 0.2671107948, -0.0955834165, 0.3270882666, -0.0078595802, -0.5133871436, -0.0430933461, -0.0474632494, 0.1465744823, -0.1710025072, 0.0801663697, 0.2090667039, -0.1568818390, -0.0605958886, 0.1397454888, 0.3902228177, 0.0655495748, 0.4067260325, -0.1545963585, -0.1100467518, 0.2239581794, -0.1630475372, 0.1964434981, -0.2620930970, 0.4093365073, 0.1481349170, 0.0935201049, 0.0182070546, 0.0194758996, -0.1904010028, 0.1219092309, 0.2316274792, 0.3238960803, 0.2954068184, 0.0357184969, -0.0561251529, -0.1005754098, 0.2687066793, 0.0839454159, -0.1087320372, -0.0359760225, -0.0421862863, 0.4873647690, -0.3425851166, -0.1761876792, -0.1426018924, 0.0356890112, -0.0701875016, 0.3169401288, -0.2115004659, -0.0440383069, 0.3098985255, 0.1502642483, 0.3797798455, 0.2284453064, 0.3259347677, -0.1552622765, 0.1061011627, 0.2999452651, 0.1254777759, -0.2980012000, -0.2167044282, 0.1734283119, 0.3567386568, -0.0810883790, 0.2000901848, 0.0519469120, 0.1926150471, 0.3444330990, -0.1968588680, 0.3280521631, 0.0233851112, 0.2937227190, 0.3348481655, 0.4891801178, -0.2555250823, 0.3025628924, 0.1644304544, -0.0314621814, 0.2330183387, 0.1206133217, 0.2575045526, -0.1030676514, -0.0737277865, 0.2482541353, 0.1567161232, 0.3289142549, 0.1109196395, 0.2411333919, 0.3185434341, -0.2817001641, -0.0558916666, 0.3859881163, -0.0541952737, -0.2949865460, -0.2697261274, 0.2328184247, 0.0432092212, -0.2412012964, 0.0580445640, 0.0774225593, 0.3613786399, 0.0082957344, -0.0985076576, 0.5411522388, 0.3545925617, -0.0864827484, 0.3227975070, 0.4315700829, -0.3017072380, -0.1517401040, -0.1478974670, -0.1752174050, 0.1238499880, -0.1471986175, 0.0935515463, -0.0620575771, -0.0702114478, -0.2543602884, 0.0920943841, 0.1604141593, -0.0203175601, -0.2559876144, 0.2964457572, 0.2354480177, 0.2441387773, -0.1948730052, 0.2593595684, -0.4482948780, -0.1965045631, 0.2628039420, -0.3079525232, -0.0070696403, 0.3801570237, 0.2287092656};
#endif

#endif
